digraph Tree {
node [shape=box, style="filled", color="black", fontname="helvetica"] ;
edge [fontname="helvetica"] ;
0 [label="release <= 0.5\ngini = 0.654\nsamples = 116\nvalue = [61, 7, 7, 20, 21]\nclass = adaptive", fillcolor="#f4caac"] ;
1 [label="use <= 0.5\ngini = 0.727\nsamples = 92\nvalue = [37, 7, 7, 20, 21]\nclass = adaptive", fillcolor="#f9e3d2"] ;
0 -> 1 [labeldistance=2.5, labelangle=45, headlabel="True"] ;
2 [label="boot <= 0.5\ngini = 0.689\nsamples = 78\nvalue = [36, 4, 6, 12, 20]\nclass = adaptive", fillcolor="#f8dcc8"] ;
1 -> 2 ;
3 [label="bump <= 0.5\ngini = 0.725\nsamples = 66\nvalue = [25, 4, 6, 11, 20]\nclass = adaptive", fillcolor="#fcf1e9"] ;
2 -> 3 ;
4 [label="jenkins <= 0.5\ngini = 0.741\nsamples = 60\nvalue = [19, 4, 6, 11, 20]\nclass = additive", fillcolor="#fefafd"] ;
3 -> 4 ;
5 [label="issue <= 0.5\ngini = 0.746\nsamples = 56\nvalue = [15, 4, 6, 11, 20]\nclass = additive", fillcolor="#fce7f7"] ;
4 -> 5 ;
6 [label="from <= 0.5\ngini = 0.729\nsamples = 52\nvalue = [15.0, 4.0, 3.0, 11.0, 19.0]\nclass = additive", fillcolor="#fceaf8"] ;
5 -> 6 ;
7 [label="with <= 0.5\ngini = 0.72\nsamples = 41\nvalue = [14.0, 4.0, 3.0, 5.0, 15.0]\nclass = additive", fillcolor="#fef8fd"] ;
6 -> 7 ;
8 [label="fixed <= 0.5\ngini = 0.723\nsamples = 35\nvalue = [14, 3, 3, 5, 10]\nclass = adaptive", fillcolor="#fbebdf"] ;
7 -> 8 ;
9 [label="files <= 0.5\ngini = 0.7\nsamples = 30\nvalue = [14, 3, 2, 5, 6]\nclass = adaptive", fillcolor="#f6d5bd"] ;
8 -> 9 ;
10 [label="diagram <= 0.5\ngini = 0.676\nsamples = 28\nvalue = [14, 3, 2, 3, 6]\nclass = adaptive", fillcolor="#f6d1b7"] ;
9 -> 10 ;
11 [label="js <= 0.5\ngini = 0.654\nsamples = 26\nvalue = [14, 3, 2, 3, 4]\nclass = adaptive", fillcolor="#f3c6a5"] ;
10 -> 11 ;
12 [label="readme <= 0.5\ngini = 0.615\nsamples = 24\nvalue = [14, 3, 2, 3, 2]\nclass = adaptive", fillcolor="#f1bd97"] ;
11 -> 12 ;
13 [label="bugfix <= 0.5\ngini = 0.554\nsamples = 22\nvalue = [14, 3, 1, 3, 1]\nclass = adaptive", fillcolor="#f0b68c"] ;
12 -> 13 ;
14 [label="name <= 0.5\ngini = 0.512\nsamples = 21\nvalue = [14, 3, 0, 3, 1]\nclass = adaptive", fillcolor="#efb286"] ;
13 -> 14 ;
15 [label="creating <= 0.5\ngini = 0.465\nsamples = 20\nvalue = [14, 3, 0, 3, 0]\nclass = adaptive", fillcolor="#eead7f"] ;
14 -> 15 ;
16 [label="drop <= 1.0\ngini = 0.421\nsamples = 19\nvalue = [14, 3, 0, 2, 0]\nclass = adaptive", fillcolor="#eda877"] ;
15 -> 16 ;
17 [label="additional <= 0.5\ngini = 0.364\nsamples = 18\nvalue = [14, 3, 0, 1, 0]\nclass = adaptive", fillcolor="#eca36e"] ;
16 -> 17 ;
18 [label="initializr <= 0.5\ngini = 0.291\nsamples = 17\nvalue = [14, 3, 0, 0, 0]\nclass = adaptive", fillcolor="#eb9c63"] ;
17 -> 18 ;
19 [label="actions <= 0.5\ngini = 0.219\nsamples = 16\nvalue = [14, 2, 0, 0, 0]\nclass = adaptive", fillcolor="#e99355"] ;
18 -> 19 ;
20 [label="service <= 0.5\ngini = 0.124\nsamples = 15\nvalue = [14, 1, 0, 0, 0]\nclass = adaptive", fillcolor="#e78a47"] ;
19 -> 20 ;
21 [label="gini = 0.0\nsamples = 14\nvalue = [14, 0, 0, 0, 0]\nclass = adaptive", fillcolor="#e58139"] ;
20 -> 21 ;
22 [label="gini = 0.0\nsamples = 1\nvalue = [0, 1, 0, 0, 0]\nclass = corrective", fillcolor="#7be539"] ;
20 -> 22 ;
23 [label="gini = 0.0\nsamples = 1\nvalue = [0, 1, 0, 0, 0]\nclass = corrective", fillcolor="#7be539"] ;
19 -> 23 ;
24 [label="gini = 0.0\nsamples = 1\nvalue = [0, 1, 0, 0, 0]\nclass = corrective", fillcolor="#7be539"] ;
18 -> 24 ;
25 [label="gini = 0.0\nsamples = 1\nvalue = [0, 0, 0, 1, 0]\nclass = preventive", fillcolor="#3c39e5"] ;
17 -> 25 ;
26 [label="gini = 0.0\nsamples = 1\nvalue = [0, 0, 0, 1, 0]\nclass = preventive", fillcolor="#3c39e5"] ;
16 -> 26 ;
27 [label="gini = 0.0\nsamples = 1\nvalue = [0, 0, 0, 1, 0]\nclass = preventive", fillcolor="#3c39e5"] ;
15 -> 27 ;
28 [label="gini = 0.0\nsamples = 1\nvalue = [0, 0, 0, 0, 1]\nclass = additive", fillcolor="#e539c0"] ;
14 -> 28 ;
29 [label="gini = 0.0\nsamples = 1\nvalue = [0, 0, 1, 0, 0]\nclass = perfective", fillcolor="#39e5c5"] ;
13 -> 29 ;
30 [label="md <= 0.5\ngini = 0.5\nsamples = 2\nvalue = [0, 0, 1, 0, 1]\nclass = perfective", fillcolor="#ffffff"] ;
12 -> 30 ;
31 [label="gini = 0.0\nsamples = 1\nvalue = [0, 0, 1, 0, 0]\nclass = perfective", fillcolor="#39e5c5"] ;
30 -> 31 ;
32 [label="gini = 0.0\nsamples = 1\nvalue = [0, 0, 0, 0, 1]\nclass = additive", fillcolor="#e539c0"] ;
30 -> 32 ;
33 [label="gini = 0.0\nsamples = 2\nvalue = [0, 0, 0, 0, 2]\nclass = additive", fillcolor="#e539c0"] ;
11 -> 33 ;
34 [label="gini = 0.0\nsamples = 2\nvalue = [0, 0, 0, 0, 2]\nclass = additive", fillcolor="#e539c0"] ;
10 -> 34 ;
35 [label="gini = 0.0\nsamples = 2\nvalue = [0, 0, 0, 2, 0]\nclass = preventive", fillcolor="#3c39e5"] ;
9 -> 35 ;
36 [label="command <= 0.5\ngini = 0.32\nsamples = 5\nvalue = [0, 0, 1, 0, 4]\nclass = additive", fillcolor="#ec6ad0"] ;
8 -> 36 ;
37 [label="gini = 0.0\nsamples = 4\nvalue = [0, 0, 0, 0, 4]\nclass = additive", fillcolor="#e539c0"] ;
36 -> 37 ;
38 [label="gini = 0.0\nsamples = 1\nvalue = [0, 0, 1, 0, 0]\nclass = perfective", fillcolor="#39e5c5"] ;
36 -> 38 ;
39 [label="endpoint <= 0.5\ngini = 0.278\nsamples = 6\nvalue = [0, 1, 0, 0, 5]\nclass = additive", fillcolor="#ea61cd"] ;
7 -> 39 ;
40 [label="gini = 0.0\nsamples = 5\nvalue = [0, 0, 0, 0, 5]\nclass = additive", fillcolor="#e539c0"] ;
39 -> 40 ;
41 [label="gini = 0.0\nsamples = 1\nvalue = [0, 1, 0, 0, 0]\nclass = corrective", fillcolor="#7be539"] ;
39 -> 41 ;
42 [label="master <= 0.5\ngini = 0.562\nsamples = 11\nvalue = [1, 0, 0, 6, 4]\nclass = preventive", fillcolor="#c7c6f8"] ;
6 -> 42 ;
43 [label="yaml <= 0.5\ngini = 0.494\nsamples = 9\nvalue = [1, 0, 0, 6, 2]\nclass = preventive", fillcolor="#908ef0"] ;
42 -> 43 ;
44 [label="reported <= 0.5\ngini = 0.375\nsamples = 8\nvalue = [0, 0, 0, 6, 2]\nclass = preventive", fillcolor="#7d7bee"] ;
43 -> 44 ;
45 [label="76 <= 0.5\ngini = 0.245\nsamples = 7\nvalue = [0, 0, 0, 6, 1]\nclass = preventive", fillcolor="#5d5ae9"] ;
44 -> 45 ;
46 [label="gini = 0.0\nsamples = 6\nvalue = [0, 0, 0, 6, 0]\nclass = preventive", fillcolor="#3c39e5"] ;
45 -> 46 ;
47 [label="gini = 0.0\nsamples = 1\nvalue = [0, 0, 0, 0, 1]\nclass = additive", fillcolor="#e539c0"] ;
45 -> 47 ;
48 [label="gini = 0.0\nsamples = 1\nvalue = [0, 0, 0, 0, 1]\nclass = additive", fillcolor="#e539c0"] ;
44 -> 48 ;
49 [label="gini = 0.0\nsamples = 1\nvalue = [1, 0, 0, 0, 0]\nclass = adaptive", fillcolor="#e58139"] ;
43 -> 49 ;
50 [label="gini = 0.0\nsamples = 2\nvalue = [0, 0, 0, 0, 2]\nclass = additive", fillcolor="#e539c0"] ;
42 -> 50 ;
51 [label="53 <= 0.5\ngini = 0.375\nsamples = 4\nvalue = [0, 0, 3, 0, 1]\nclass = perfective", fillcolor="#7beed8"] ;
5 -> 51 ;
52 [label="gini = 0.0\nsamples = 3\nvalue = [0, 0, 3, 0, 0]\nclass = perfective", fillcolor="#39e5c5"] ;
51 -> 52 ;
53 [label="gini = 0.0\nsamples = 1\nvalue = [0, 0, 0, 0, 1]\nclass = additive", fillcolor="#e539c0"] ;
51 -> 53 ;
54 [label="gini = 0.0\nsamples = 4\nvalue = [4, 0, 0, 0, 0]\nclass = adaptive", fillcolor="#e58139"] ;
4 -> 54 ;
55 [label="gini = 0.0\nsamples = 6\nvalue = [6, 0, 0, 0, 0]\nclass = adaptive", fillcolor="#e58139"] ;
3 -> 55 ;
56 [label="keep <= 0.5\ngini = 0.153\nsamples = 12\nvalue = [11, 0, 0, 1, 0]\nclass = adaptive", fillcolor="#e78c4b"] ;
2 -> 56 ;
57 [label="gini = 0.0\nsamples = 11\nvalue = [11, 0, 0, 0, 0]\nclass = adaptive", fillcolor="#e58139"] ;
56 -> 57 ;
58 [label="gini = 0.0\nsamples = 1\nvalue = [0, 0, 0, 1, 0]\nclass = preventive", fillcolor="#3c39e5"] ;
56 -> 58 ;
59 [label="the <= 3.5\ngini = 0.612\nsamples = 14\nvalue = [1, 3, 1, 8, 1]\nclass = preventive", fillcolor="#a6a5f3"] ;
1 -> 59 ;
60 [label="48 <= 0.5\ngini = 0.446\nsamples = 11\nvalue = [1, 1, 1, 8, 0]\nclass = preventive", fillcolor="#7674ed"] ;
59 -> 60 ;
61 [label="java <= 1.5\ngini = 0.34\nsamples = 10\nvalue = [1, 1, 0, 8, 0]\nclass = preventive", fillcolor="#6765eb"] ;
60 -> 61 ;
62 [label="merge <= 0.5\ngini = 0.198\nsamples = 9\nvalue = [0, 1, 0, 8, 0]\nclass = preventive", fillcolor="#5452e8"] ;
61 -> 62 ;
63 [label="hibernate <= 0.5\ngini = 0.375\nsamples = 4\nvalue = [0, 1, 0, 3, 0]\nclass = preventive", fillcolor="#7d7bee"] ;
62 -> 63 ;
64 [label="gini = 0.0\nsamples = 3\nvalue = [0, 0, 0, 3, 0]\nclass = preventive", fillcolor="#3c39e5"] ;
63 -> 64 ;
65 [label="gini = 0.0\nsamples = 1\nvalue = [0, 1, 0, 0, 0]\nclass = corrective", fillcolor="#7be539"] ;
63 -> 65 ;
66 [label="gini = 0.0\nsamples = 5\nvalue = [0, 0, 0, 5, 0]\nclass = preventive", fillcolor="#3c39e5"] ;
62 -> 66 ;
67 [label="gini = 0.0\nsamples = 1\nvalue = [1, 0, 0, 0, 0]\nclass = adaptive", fillcolor="#e58139"] ;
61 -> 67 ;
68 [label="gini = 0.0\nsamples = 1\nvalue = [0, 0, 1, 0, 0]\nclass = perfective", fillcolor="#39e5c5"] ;
60 -> 68 ;
69 [label="output <= 0.5\ngini = 0.444\nsamples = 3\nvalue = [0, 2, 0, 0, 1]\nclass = corrective", fillcolor="#bdf29c"] ;
59 -> 69 ;
70 [label="gini = 0.0\nsamples = 2\nvalue = [0, 2, 0, 0, 0]\nclass = corrective", fillcolor="#7be539"] ;
69 -> 70 ;
71 [label="gini = 0.0\nsamples = 1\nvalue = [0, 0, 0, 0, 1]\nclass = additive", fillcolor="#e539c0"] ;
69 -> 71 ;
72 [label="gini = 0.0\nsamples = 24\nvalue = [24, 0, 0, 0, 0]\nclass = adaptive", fillcolor="#e58139"] ;
0 -> 72 [labeldistance=2.5, labelangle=-45, headlabel="False"] ;
}